svm_type c_svc
kernel_type rbf
gamma 1.09328
nr_class 4
total_sv 72
rho 0.180608489656568 1.13881433297866 -0.14599193409814 0.302904439771759 -0.194129959229889 -1.04115846202564
label 1 2 3 4
probA -2.97811466611995 -3.33626307725323 -3.85634253875358 -2.16451959221317 -3.42583132384671 -3.32523853211922
probB -0.290817838690478 0.109059108675324 -0.0865561887670881 0.11802677046486 -0.095585119444193 -0.263367247493166
nr_sv 7 28 29 8
SV
0 1.91168499039912 3.91673778662245 1:0.358003869284035 2:0.168360947187232 3:0.718422856516771 4:0.261187635124373 5:0.253692183882024 6:0.14520383140812 7:0.701439482154246 8:0.187497461256974 9:0.66357511592102 10:0.324033056300976 11:0.747555967408879 12:0.447513972469359 13:0.909958109092563 14:0.471036069951233 15:0.765302931125302 16:0.627173861045112 
0 0 0.432109007576224 1:0.14720806840661 2:0.0975653867189285 3:0.544501860093484 4:0.0372360500798763 5:0.357912628135634 6:0.188084455344527 7:0.725983731373359 8:0.334852086634971 9:0.716056842196081 10:0.361054032971812 11:0.745837249748666 12:0.47391776865191 13:0.987925536437855 14:0.503764820621529 15:0.756521225310813 16:0.547854545644998 
5.01568 0 0 1:0.19009650195959 2:0.143215893745095 3:0.682936867917505 4:0.154583903851532 5:0.188930395640404 6:0.108598227546563 7:0.675862405317428 8:0.148084028135537 9:0.570834740842985 10:0.267857704715359 11:0.737411450001572 12:0.395520026986802 13:0.860538974261997 14:0.415361236985976 15:0.754316048236136 16:0.50383330803097 
4.72257814383476 0 0 1:0.209974469051729 2:0.15670638894562 3:0.701011763292802 4:0.210490637621722 5:0.185821029414998 6:0.101867153818046 7:0.675206371281826 8:0.148966042583064 9:0.590210671574923 10:0.279973703212 11:0.744284624852609 12:0.458835847373084 13:0.909184368610458 14:0.451927616444756 15:0.761031548045013 16:0.590121825921033 
5.01568 0 0 1:0.195635123156151 2:0.143781209770704 3:0.704837677332055 4:0.205849333226584 5:0.239915522787663 6:0.126352275323714 7:0.69160591141058 8:0.171664408590247 9:0.632392901821027 10:0.29165830440331 11:0.738877378018195 12:0.384599518055127 13:0.850672253703424 14:0.46249411108733 15:0.761556647553236 16:0.603464137035462 
5.01568 5.01568 1.32847324899173 1:0.358003869284035 2:0.183912838068296 3:0.673823526948143 4:0.143665797340848 5:0.256888554074948 6:0.118843997890996 7:0.674360317060883 8:0.149401716208414 9:0.468805229517024 10:0.231595890202047 11:0.738355376205015 12:0.407100597445605 13:0.623996767758203 14:0.329679108992365 15:0.739848598058686 16:0.38571551329162 
5.01568 5.01568 0 1:0.358003869284035 2:0.183912838068296 3:0.673823526948143 4:0.143665797340848 5:0.256888554074948 6:0.118843997890996 7:0.674360317060883 8:0.149401716208414 9:0.468805229517024 10:0.231595890202047 11:0.738355376205015 12:0.407100597445605 13:0.623996767758203 14:0.329679108992365 15:0.739848598058686 16:0.38571551329162 
0 5.01568 0 1:0.459698587733077 2:0.308192535104978 3:0.726923714326111 4:0.35252671322581 5:0.16769398583506 6:0.105229542374444 7:0.659432102255503 8:0.135232737987928 9:0.32341084366078 10:0.179901305583042 11:0.700197341376632 12:0.236063169164882 13:0.336113660587702 14:0.242320473044929 15:0.71333014051324 16:0.270303392352615 
-0.883156276537323 5.01568 3.41796910396137 1:0.735628050198478 2:0.4355746916944 3:0.733494051404975 4:0.410386743785397 5:0.398041174568754 6:0.20630041285987 7:0.71045887889867 8:0.281240942077361 9:0.226224111859378 10:0.153940256602253 11:0.683429000040939 12:0.217449683510344 13:0.494894418190202 14:0.239614522140358 15:0.719879223817599 16:0.340947308351703 
-4.6168721175425 0 0 1:0.247246533554561 2:0.18992481374494 3:0.712159289267657 4:0.237632453382441 5:0.0998066959569541 6:0.0702953137927055 7:0.606394736818511 8:0.0566278085500205 9:0.52129544253513 10:0.249676633134076 11:0.73666099723036 12:0.366778572309891 13:0.693906142801333 14:0.414948660950135 15:0.761938120334348 16:0.576238024558089 
0 5.01568 0 1:0.453919310460815 2:0.296783017979893 3:0.730928720205268 4:0.367730439882428 5:0.13954996937406 6:0.094945121119072 7:0.660658356013661 8:0.125186373912166 9:0.340224312001962 10:0.176311976192178 11:0.709984427815704 12:0.248067782463745 13:0.425742551246747 14:0.304344169291444 15:0.746410588100459 16:0.443289269463287 
0 5.01568 0 1:0.424165374870909 2:0.271897853395804 3:0.727528854376958 4:0.329140887405962 5:0.216624690799101 6:0.124699274815412 7:0.684674256705591 8:0.164990376114201 9:0.268829825781517 10:0.168785959086062 11:0.705831448498875 12:0.2499764729681 13:0.38923650631784 14:0.252275226524443 15:0.729851119931401 16:0.314077579051866 
0 5.01568 0 1:0.402961150967468 2:0.27028161902998 3:0.715645516922856 4:0.278866127818492 5:0.122227082196216 6:0.0794213898644389 7:0.62358788740713 8:0.0852021490017475 9:0.358582529277225 10:0.177434460266923 11:0.703106348670289 12:0.232834274210594 13:0.549028283126066 14:0.333382782899785 15:0.739151182105556 16:0.380543344408431 
-2.14088205584938 0.615256425745557 0 1:0.402961150967468 2:0.257789576499535 3:0.7138177013135 4:0.279571969078713 5:0.223889437821087 6:0.0878641237946603 7:0.616324867629896 8:0.0848294319982648 9:0.347606872822216 10:0.188311723297831 11:0.709125863251304 12:0.272992963638189 13:0.731861710016374 14:0.323036091826365 15:0.739501231164285 16:0.450982332792952 
0 5.01568 0 1:0.416362163878176 2:0.284549638951612 3:0.729384391394443 4:0.345558083514014 5:0.215435503803374 6:0.135734636431615 7:0.696776468456846 8:0.205210997281436 9:0.259603740742886 10:0.152574487629522 11:0.697813511288143 12:0.203712150358518 13:0.345118797099201 14:0.242022693953425 15:0.717206530769292 16:0.257659856039467 
0 5.01568 0 1:0.495236861922441 2:0.309128596636673 3:0.713291010800504 4:0.26549645354275 5:0.264164563271144 6:0.167089958123866 7:0.711036834430951 8:0.267496717492101 9:0.259603740742886 10:0.161937834414363 11:0.705227423608069 12:0.244213151309786 13:0.336113660587702 14:0.231463296349804 15:0.709142173331168 16:0.240884810878606 
0 5.01568 0 1:0.456920458373719 2:0.308666311195239 3:0.73145384897058 4:0.369558467561483 5:0.156896193552519 6:0.0966834950187865 7:0.654476070869304 8:0.1141142993746 9:0.308095051604267 10:0.161142047299278 11:0.693226601493124 12:0.185757307438814 13:0.420926517504741 14:0.276828252026134 15:0.735736581849392 16:0.356409123752339 
0 5.01568 0 1:0.562581726616015 2:0.366507827325961 3:0.730391296257045 4:0.382654638704977 5:0.294684260348504 6:0.172094854479955 7:0.69181348555884 8:0.205422856278232 9:0.194901926667101 10:0.139977546707361 11:0.685165322097387 12:0.190212436548448 13:0.259034144032632 14:0.208918651127495 15:0.701221250388918 16:0.223326281869573 
0 5.01568 0 1:0.416362163878176 2:0.280001023544544 3:0.722958720721016 4:0.307343404654576 5:0.152127322821118 6:0.0865493885340222 7:0.635825525285799 8:0.0896456556113638 9:0.261876181587313 10:0.158196391685712 11:0.698248288509992 12:0.212492501999467 13:0.345118797099201 14:0.238908658034869 15:0.715970215855181 16:0.261145120397813 
0 5.01568 0 1:0.402961150967468 2:0.291031130528567 3:0.731121424293341 4:0.356266127472075 5:0.187978244884003 6:0.122099740725169 7:0.684754923021321 8:0.16759940113475 9:0.264485281948873 10:0.15055903373823 11:0.6911038509601 12:0.175811314262533 13:0.351111700869648 14:0.246936143488088 15:0.722108831712779 16:0.271606855028745 
0 5.01568 0 1:0.456920458373719 2:0.290031779516325 3:0.715964377653261 4:0.266415594070958 5:0.142693457904137 6:0.0875253570953233 7:0.632618659874521 8:0.0846636981932087 9:0.340224312001962 10:0.178056093599297 11:0.707700147396382 12:0.226680853364888 13:0.56492752758774 14:0.348630647726866 15:0.742812377908424 16:0.389033950001425 
0 5.01568 0 1:0.402677187291367 2:0.271282490306367 3:0.733644519489206 4:0.371596531886217 5:0.137626087304115 6:0.0809828677751576 7:0.643582578376429 8:0.0886026035152876 9:0.374438522291227 10:0.204199540708258 11:0.718946097886607 12:0.257271274610687 13:0.399860602577785 14:0.281754997997516 15:0.740695316551981 16:0.366773718526269 
-0.0274627992809805 0 0 1:0.368217481341029 2:0.246415844838524 3:0.704115325338166 4:0.223526637626562 5:0.145747726932303 6:0.081213505251314 7:0.633534965733713 8:0.0905472001505139 9:0.423679123498536 10:0.200901952286903 11:0.716751378950907 12:0.277907642081084 13:0.675533890836738 14:0.359260386271554 15:0.731770106877151 16:0.320715173056613 
-5.01568 0 0 1:0.296028745023378 2:0.205466181767199 3:0.701146219283862 4:0.196117144344626 5:0.184828560215232 6:0.0953961221279615 7:0.671191526784453 8:0.132268874433274 9:0.413757868509934 10:0.209368559942699 11:0.730180153147083 12:0.330450896259806 13:0.701777524276085 14:0.384654953446946 15:0.740071396586642 16:0.356343070853572 
-5.01568 0 0 1:0.191477143160828 2:0.157095640413552 3:0.694087665165841 4:0.169607163888713 5:0.147092980039653 6:0.0897101495400439 7:0.668879086026167 8:0.118279925456283 9:0.570834740842985 10:0.271318977070854 11:0.740921523697486 12:0.39193686493426 13:0.684918855829741 14:0.399949941260202 15:0.760683760973022 16:0.581993135920127 
-2.06988489462457 0 0 1:0.232968987868019 2:0.159402510716017 3:0.67135446685972 4:0.129715060388639 5:0.147092980039653 6:0.081071735231202 7:0.62528501307798 8:0.0743799325006017 9:0.468805229517024 10:0.23400580005639 11:0.735446023723724 12:0.371777437191686 13:0.630461484092112 14:0.38147585916411 15:0.755681780249861 16:0.519357217766578 
0 5.01568 0 1:0.403930143806814 2:0.292015758127307 3:0.731786849862034 4:0.367210555311895 5:0.177627314626607 6:0.0831532760387248 7:0.628540951541729 8:0.0807381346604062 9:0.35997032216833 10:0.181772212784205 11:0.701010538287843 12:0.202454498351374 13:0.475722753315687 14:0.307765133831307 15:0.738332853365372 16:0.364834820882381 
0 5.01568 0 1:0.460644139042765 2:0.297808613457082 3:0.728734754909108 4:0.34856329860517 5:0.235286772143608 6:0.093176150691288 7:0.629672773694963 8:0.0850839053026171 9:0.358582529277225 10:0.180390921759315 11:0.701665913886871 12:0.212751058234779 13:0.457543877196637 14:0.279672160600898 15:0.728208873579093 16:0.30937773002335 
0 5.01568 0 1:0.403930143806814 2:0.263835083671368 3:0.725117114940208 4:0.312752332918667 5:0.184365559502336 6:0.0773919645818712 7:0.623184714294269 8:0.0725732282929903 9:0.413757868509934 10:0.20240168809102 11:0.717145193097365 12:0.262764358913125 13:0.412558144929544 14:0.275764170759386 15:0.738760628995378 16:0.36284842437027 
0 5.01568 0 1:0.414413693069602 2:0.253827850942641 3:0.722926276829864 4:0.296019637613789 5:0.177627314626607 6:0.0754200281213462 7:0.621839781607675 8:0.0697143729641064 9:0.358582529277225 10:0.186166762399945 11:0.716790009273293 12:0.261088720400736 13:0.470974696322495 14:0.316705730326662 15:0.746124242541057 16:0.422354434885691 
0 5.01568 0 1:0.414413693069602 2:0.280159449232593 3:0.728729701647709 4:0.337823934041801 5:0.177627314626607 6:0.0804822031279408 7:0.636788759360044 8:0.0852834065824206 9:0.35997032216833 10:0.187905234541427 11:0.712396197185365 12:0.236923260630333 13:0.377844413889883 14:0.262078708438438 15:0.731460525218431 16:0.31359470771428 
0 5.01568 0 1:0.414413693069602 2:0.267551822549031 3:0.724762189482867 4:0.30748884164246 5:0.159025855166801 6:0.0927245403187015 7:0.65096911695951 8:0.0994603295541823 9:0.308095051604267 10:0.169015330065847 11:0.702926597047048 12:0.196072161646359 13:0.421961349778887 14:0.287113386678305 15:0.740162881921007 16:0.362665610237997 
0 5.01568 0 1:0.414413693069602 2:0.26028808027537 3:0.72104588550399 4:0.293423294707493 5:0.184365559502336 6:0.0833096083783803 7:0.621436126447552 8:0.0744092626421367 9:0.446692947499695 10:0.204473243296889 11:0.712413788482718 12:0.245873350022235 13:0.59181609197217 14:0.311238943156792 15:0.734118666284684 16:0.340754049915223 
0 5.01568 0 1:0.47111306695737 2:0.319397900925392 3:0.728155777987622 4:0.344342043829911 5:0.137626087304115 6:0.0815953844965862 7:0.62458168583844 8:0.0787457283439943 9:0.363270864688619 10:0.182794439080562 11:0.698892225444496 12:0.199466275769542 13:0.495227271835873 14:0.309048856157536 15:0.739476487174942 16:0.373251260050413 
-5.01568 0 2.27534176943327 1:0.182577495006885 2:0.133622346955557 3:0.676146759841999 4:0.124490602631661 5:0.188930395640404 6:0.106563965877468 7:0.681677016479086 8:0.136305380449572 9:0.570834740842985 10:0.29665677940915 11:0.745138337502193 12:0.421485216759011 13:0.681077332722215 14:0.403948515907468 15:0.760993827639724 16:0.570897006882711 
-5.01568 -5.01568 0 1:0.358003869284035 2:0.253615614462603 3:0.713009050178847 4:0.252453270395105 5:0.10595394101872 6:0.0675912918877552 7:0.592799108380255 8:0.0567557832034509 9:0.413757868509934 10:0.194895673879215 11:0.70828056645921 12:0.237219657508963 13:0.56492752758774 14:0.333429380154549 15:0.739500017828544 16:0.383119648263736 
0 -5.01568 0 1:0.460183184456677 2:0.293916792996036 3:0.724558244539571 4:0.331088152027563 5:0.184073390312035 6:0.100054467348179 7:0.657332360098433 8:0.127128109375888 9:0.304333952459364 10:0.161377328593384 11:0.688430338771442 12:0.189652278138051 13:0.413115751205455 14:0.278924817982778 15:0.735547541590192 16:0.377269517172333 
0 -5.01568 0 1:0.409555184467211 2:0.281978458332052 3:0.724587675240663 4:0.306368333303988 5:0.110796664309146 6:0.078203370406678 7:0.641758988252271 8:0.0886254355024443 9:0.358582529277225 10:0.184732311104977 11:0.713062199318871 12:0.235130719268467 13:0.336113660587702 14:0.244080612324738 15:0.720381401391073 16:0.26304022179691 
0 -5.01568 0 1:0.47111306695737 2:0.307954569790301 3:0.734599806901401 4:0.386188327090547 5:0.230336811140563 6:0.094874039397356 7:0.659208640511147 8:0.112812297395363 9:0.340224312001962 10:0.179855799204501 11:0.702824015108105 12:0.200162710942017 13:0.345118797099201 14:0.254988056043779 15:0.728219990423071 16:0.294268906306685 
-0.69639944689721 -5.01568 0 1:0.508425524095975 2:0.302170793749166 3:0.722171155100782 4:0.331896997518036 5:0.236646686288426 6:0.108668707911756 7:0.63123343432787 8:0.105146468550511 9:0.413008336247646 10:0.181457628998522 11:0.688213239217782 12:0.215825968881851 13:0.56492752758774 14:0.314479549660396 15:0.734663362348121 16:0.404200257185773 
0 0 5.01568 1:0.899772475785449 2:0.499422547150481 3:0.73734798669547 4:0.462645540083227 5:0.941941435518459 6:0.372180156779657 7:0.719791942098494 8:0.360665165706805 9:0.582671496106404 10:0.287142514134525 11:0.74088008082234 12:0.511711652134554 13:0.63092547898277 14:0.331274364426272 15:0.738030478494774 16:0.460820254024429 
0 -5.01568 0 1:0.517534853791085 2:0.326529802901673 3:0.732684176253842 4:0.379743947936428 5:0.182245968327025 6:0.107048569086413 7:0.676881636687658 8:0.150156779614156 9:0.297165203195134 10:0.158976870831849 11:0.697847144574375 12:0.196087360293846 13:0.397608916434448 14:0.273625457663897 15:0.736351262045128 16:0.360613366583861 
0 0 1.12771405907976 1:0.569249794382399 2:0.366317890630875 3:0.731775829817027 4:0.383085263964103 5:0.318382275427519 6:0.16530465351275 7:0.691031621202014 8:0.201256999269145 9:0.340224312001962 10:0.193568532219246 11:0.706875112028319 12:0.257408502136154 13:0.311807776944098 14:0.228907198276639 15:0.708829811769246 16:0.243755342882759 
0 -5.01568 0 1:0.528024761611561 2:0.332258830853742 3:0.731285352303796 4:0.363123182299096 5:0.154823010720019 6:0.0956458956150644 7:0.665961585206327 8:0.129826995623674 9:0.304333952459364 10:0.156294389603534 11:0.685124542501681 12:0.159802891059196 13:0.397608916434448 14:0.278930786028488 15:0.743843507937067 16:0.412453256757086 
0 -5.01568 0 1:0.517534853791085 2:0.29414748936973 3:0.722808536687658 4:0.30108915403331 5:0.177627314626607 6:0.085923265012484 7:0.649076247052732 8:0.101168636533661 9:0.35997032216833 10:0.193591088308138 11:0.716332947855336 12:0.258952155922936 13:0.377844413889883 14:0.278432934795687 15:0.739400012060739 16:0.377608871791304 
0 -5.01568 0 1:0.472492082868171 2:0.326183657501738 3:0.734040986433279 4:0.39606765063787 5:0.247145125865057 6:0.139098252052129 7:0.674299173635814 8:0.153335168906814 9:0.223842104915428 10:0.145050266887263 11:0.688149468903673 12:0.18214083028017 13:0.318629023125796 14:0.224821801498772 15:0.707481256444992 16:0.225886204257063 
0 0 4.16198725887474 1:0.903366185303747 2:0.577264384418872 3:0.747507504030849 4:0.564299975248694 5:0.598171751823459 6:0.334301087393846 7:0.742035566082609 8:0.513917437598318 9:0.47896910003197 10:0.211095824565674 11:0.696320728198409 12:0.281922899709181 13:0.348106365341109 14:0.231570079477475 15:0.702966510323662 16:0.303607032119636 
0 -4.30663235936955 2.12214966294918 1:0.517534853791085 2:0.314539703401043 3:0.731618479824643 4:0.38181408528156 5:0.284713671008118 6:0.106965366887712 7:0.618944803532684 8:0.082322245767099 9:0.414578734478525 10:0.181391837909897 11:0.686873797769851 12:0.18537082300637 13:0.56492752758774 14:0.297334199954716 15:0.72438161016389 16:0.310863828014033 
0 -5.01568 0 1:0.512803840584222 2:0.329351979801372 3:0.731697161940408 4:0.382448873518481 5:0.209335103018833 6:0.111023186768707 7:0.648537305141999 8:0.114533023377793 9:0.326552186190319 10:0.159931401370112 11:0.679859432400048 12:0.167405859721948 13:0.463498811965012 14:0.266818942528073 15:0.719948799481441 16:0.288384316410576 
0 0 1.33437538858565 1:0.908810264911075 2:0.597123416412164 3:0.748998926497621 4:0.580980982529108 5:0.957911858584394 6:0.450482628754082 7:0.742101811181684 8:0.518248076464383 9:0.410055619363961 10:0.236958447901994 11:0.703357910895054 12:0.325649521195291 13:0.295657250556619 14:0.217851824785416 15:0.685983233570177 16:0.266587154906166 
-2.99238139337025 -1.25729493279858 5.01568 1:0.562732317774574 2:0.338019118110984 3:0.728073705718144 4:0.367161040672941 5:0.653521377038513 6:0.241521906551997 7:0.708823312309819 8:0.272405659618216 9:0.846242324378946 10:0.343552210922428 11:0.74439698707822 12:0.515957139706221 13:0.790306148772269 14:0.395155239488406 15:0.746717217298846 16:0.493912154612234 
0 -0.592777280001293 0 1:0.612965565433352 2:0.439265032023834 3:0.751623935675304 4:0.625165062346888 5:0.605071616293749 6:0.326928297551659 7:0.758169257091519 8:0.731574257530772 9:0.442808082540913 10:0.286875063663146 11:0.73784781122347 12:0.468684023596847 13:0.672970514788192 14:0.349174977971462 15:0.737837756034858 16:0.442447908958545 
0 0 2.11933689775775 1:0.682195928849542 2:0.431622257488915 3:0.748805049066092 4:0.583483924894362 5:0.664284063776536 6:0.297331278858537 7:0.736870929353176 8:0.457870571896091 9:0.517264683636306 10:0.323491968120454 11:0.744975732764694 12:0.526101081748346 13:0.752166877888692 14:0.357422746241726 15:0.736347235443182 16:0.443018444201202 
0 -5.01568 0 1:0.456524164064226 2:0.282186271366304 3:0.719109239333299 4:0.308179893123164 5:0.136227674456866 6:0.0796395472049478 7:0.591707490336095 8:0.0670422306902794 9:0.327429663523913 10:0.17035797867072 11:0.682165091456523 12:0.188234108031554 13:0.4823510714664 14:0.307039310431128 15:0.735486365234902 16:0.395992081591873 
0 -5.01568 0 1:0.512710166729685 2:0.330487319479963 3:0.72497891434364 4:0.343035517308617 5:0.200247970844984 6:0.12252531242815 7:0.682003816531726 8:0.183145882968553 9:0.29018440725782 10:0.16274590998738 11:0.690698309112527 12:0.211791966577878 13:0.517364678903904 14:0.286298711684782 15:0.716789306159635 16:0.296972363105332 
-2.01466810186114 -5.01568 0 1:0.358003869284035 2:0.236189555140484 3:0.717003299547101 4:0.274182135469305 5:0.10595394101872 6:0.0818170751680123 7:0.659719212689879 8:0.115715373440398 9:0.358582529277225 10:0.18066409842085 11:0.712609103979691 12:0.242332869514539 13:0.336113660587702 14:0.258283971568169 15:0.739183060997863 16:0.389883078405258 
0 -5.01568 0 1:0.47111306695737 2:0.297926185555192 3:0.724518351520862 4:0.340080250278265 5:0.230336811140563 6:0.0992730199480229 7:0.611849423105795 8:0.0820667086090661 9:0.363270864688619 10:0.178262620326042 11:0.682267564279845 12:0.188498062028257 13:0.538743102857774 14:0.308105771929815 15:0.729696224765039 16:0.36013910980572 
0 -5.01568 0 1:0.517513890277446 2:0.354730334620999 3:0.737332161579726 4:0.434589534191729 5:0.204916557043703 6:0.128154559034315 7:0.702803637284491 8:0.236905377493814 9:0.253286119665781 10:0.142718849675858 11:0.693136137307355 12:0.206634603703343 13:0.303056390650907 14:0.22556691345549 15:0.730086862112494 16:0.354925399716313 
0 -5.01568 0 1:0.472492082868171 2:0.314655029537369 3:0.730384727483253 4:0.361064290715031 5:0.245465217984032 6:0.148932336832788 7:0.690246649983422 8:0.188569004270045 9:0.347606872822216 10:0.164767653496397 11:0.683939670443489 12:0.160494433956458 13:0.325462988094198 14:0.225770343059875 15:0.708258812810844 16:0.224478868211665 
-1.22391604827052 0 0 1:0.641562479606665 2:0.355277760074402 3:0.723762977257324 4:0.329975345831399 5:0.398427791062783 6:0.174960504337008 7:0.687303758581503 8:0.191087053553902 9:0.422731474154799 10:0.212948537358104 11:0.697000464230608 12:0.218784711337015 13:0.76547521916217 14:0.268443790167388 15:0.716256047358256 16:0.31167637859526 
0 -5.01568 0 1:0.460644139042765 2:0.27607634377711 3:0.726927177881219 4:0.324925008926397 5:0.182245968327025 6:0.0944112354123834 7:0.650392506439771 8:0.102835817345056 9:0.280706238946977 10:0.168221288471962 11:0.700995047834916 12:0.198222178494978 13:0.412682047139228 14:0.288673903187896 15:0.731055185983614 16:0.316301066276977 
0 -5.01568 0 1:0.508182403503473 2:0.311697742795249 3:0.730333581232802 4:0.36535185325628 5:0.288842912099081 6:0.0989994233550913 7:0.631649886266386 8:0.0901642178186473 9:0.29018440725782 10:0.157107263458021 11:0.691031818912202 12:0.183107819227548 13:0.463498811965012 14:0.283926755636539 15:0.730888058309056 16:0.334596950407184 
0 -5.01568 0 1:0.472492082868171 2:0.324999973567609 3:0.72578218639617 4:0.353011777729485 5:0.230336811140563 6:0.114154591949644 7:0.65743029332753 8:0.139141043507809 9:0.297165203195134 10:0.149248377856838 11:0.658693990466323 12:0.145039475859602 13:0.399860602577785 14:0.262060449235226 15:0.726323922806774 16:0.351730820845355 
0 -4.48991185357612 0 1:0.47111306695737 2:0.328565384053545 3:0.72986120430679 4:0.375406000203345 5:0.187031834535003 6:0.114425446247184 7:0.665362536987293 8:0.146889354838971 9:0.297165203195134 10:0.150281941583566 11:0.66335488466492 12:0.14355997878366 13:0.295366665935493 14:0.217405291271104 15:0.696007800399137 16:0.213229628338631 
0 0 -0.676742661063594 1:0.730495436381745 2:0.452391032162665 3:0.73723386693429 4:0.456183590785253 5:0.488089926549003 6:0.314992293006034 7:0.746343415282351 8:0.557042252660502 9:0.921631733355383 10:0.325713499446128 11:0.72013282091912 12:0.385243781472941 13:0.581392791608604 14:0.273817807020538 15:0.713005546046753 16:0.336363014372277 
-0.217593020977845 0 -0.0886086413749645 1:0.410858011946269 2:0.292711898781829 3:0.727645161918532 4:0.381267526736464 5:0.603240748747466 6:0.206429494669181 7:0.677069180229387 8:0.193909385343115 9:0.822574924645556 10:0.29386361401195 11:0.713883567410444 12:0.346525340888199 13:0.764172059481107 14:0.329849297945055 15:0.730922648966806 16:0.419972791772216 
-5.01568 -2.63971439473486 -5.01568 1:0.354310975967454 2:0.257473871779247 3:0.730754916582953 4:0.399922938820624 5:0.51337071628436 6:0.18935513991788 7:0.688326245289335 8:0.217197002769901 9:0.79870957903543 10:0.327514035010203 11:0.736856881454075 12:0.461605830904633 13:0.771773814557235 14:0.423805005946067 15:0.7434173478588 16:0.488650247048747 
0 0 -4.54959155867613 1:0.622414665314448 2:0.422366670894848 3:0.737214950558207 4:0.454080424870572 5:0.722762974098115 6:0.286797684542341 7:0.728072670462516 8:0.393952083538549 9:0.664126189684409 10:0.287731791316125 11:0.72028930084399 12:0.382517307983329 13:0.404548675977028 14:0.253699926770918 15:0.712104966416051 16:0.319904590534562 
0 0 -0.534940406132399 1:0.901724771807203 2:0.509116989107781 3:0.732805043328698 4:0.428371854529819 5:0.837366201993451 6:0.306263520190415 7:0.694733270192552 8:0.262938555923138 9:0.846242324378946 10:0.296402562457022 11:0.704534427780613 12:0.344968560837382 13:0.594437729556789 14:0.259874965912328 15:0.681948756115771 16:0.274188000797326 
0 0 -5.01568 1:0.903111586346533 2:0.553852489569713 3:0.739188085387309 4:0.478726018919999 5:0.957911858584394 6:0.380256616503641 7:0.724319884887486 8:0.387345282150853 9:0.819948859426026 10:0.313120615355008 11:0.722049417890792 12:0.408723533846184 13:0.626234677444736 14:0.307949766322631 15:0.703812444083412 16:0.341573536574129 
-0.0783379394890732 -3.05359647865978 -5.01568 1:0.748472337047247 2:0.470733808108831 3:0.742073970426857 4:0.501062964121718 5:0.657532140682583 6:0.304363962645386 7:0.72329276353766 8:0.361137393293311 9:0.557103762448132 10:0.271953749588853 11:0.712078163156834 12:0.338542753740838 13:0.420388878626422 14:0.258304251759094 15:0.700725511402805 16:0.264702253367171 
-0.365709082723486 0 0 1:0.903366185303747 2:0.587588989485794 3:0.739082604354395 4:0.478127739583161 5:0.957911858584394 6:0.425596031026479 7:0.743768525432082 8:0.534106337087747 9:0.909209046038758 10:0.296434298142208 11:0.700578375367422 12:0.315390727200121 13:0.254043001742834 14:0.20430556976355 15:0.663817803711089 16:0.211242670833153 
